{"arch": {"inputShape": [30, 26], "gruUnits": 24, "gruActivation": "tanh", "gruRecurrentActivation": "sigmoid", "gruResetAfter": true, "dense1Units": 8, "dense1Activation": "relu", "dense2Units": 4, "dense2Activation": "softmax", "classes": ["backhand", "forehand", "neutral", "serve"]}, "weights": {"gru_kernel": [[-0.320721298456192, 0.28178587555885315, -0.13171172142028809, -0.32503730058670044, -0.41504716873168945, -0.25847938656806946, -0.2901362478733063, 0.07908493280410767, 0.11108735203742981, -0.5537281632423401, 0.3825710713863373, -0.411090612411499, 0.08099843561649323, 0.15950724482536316, 0.008875963278114796, -0.2827036380767822, -0.19367364048957825, -0.053585588932037354, -0.20175479352474213, 0.006792767439037561, -0.4327591359615326, -0.5680944919586182, -0.1419343650341034, -0.889440655708313, -0.026878580451011658, -0.9497213959693909, 0.09578599035739899, 0.47056567668914795, 0.26654669642448425, -0.561698853969574, -0.01483894232660532, 0.3868112564086914, 0.21664027869701385, 0.617547869682312, -0.2038114219903946, 0.5483002662658691, 0.3696598708629608, -0.0783897191286087, 0.09101220965385437, 0.6987202763557434, 0.41722241044044495, -0.4340539872646332, 0.20168016850948334, 0.08663593232631683, -0.36286279559135437, 0.3560882806777954, -0.01644616760313511, 0.16519950330257416, 0.206971675157547, -0.2999742031097412, -0.17679725587368011, 0.3342127799987793, -0.3504038453102112, 0.5417200326919556, -0.0844440683722496, 0.17261143028736115, -0.25921645760536194, 0.38915008306503296, 0.4401435852050781, 0.38552072644233704, -0.04092693328857422, -0.25330621004104614, -0.19798539578914642, -0.11760951578617096, 0.2586947977542877, 0.000682304089423269, -0.14865748584270477, -0.17926886677742004, 0.3913002908229828, -0.023960640653967857, 0.35174277424812317, 0.27939239144325256], [-0.09643195569515228, -0.2381293922662735, 0.18054936826229095, -0.45315858721733093, 0.18305785953998566, 0.003959594760090113, -0.6105331182479858, 0.24926318228244781, 0.4508849084377289, -0.7846313118934631, -0.30218830704689026, 0.11671613901853561, -0.25084176659584045, 0.5284715890884399, -0.00912672933191061, 0.21785905957221985, -0.13591289520263672, -0.08866819739341736, -0.4378550350666046, 0.006303773261606693, -0.32660767436027527, 0.1461266428232193, -0.781750500202179, 0.4127950072288513, -0.2672975957393646, 0.07029283046722412, -0.04079451784491539, 0.24458786845207214, -0.029735125601291656, 0.00032742111943662167, -0.11009443551301956, 0.2827024459838867, -0.19182100892066956, -0.3027181923389435, 0.129026398062706, 0.015082312747836113, 0.20035958290100098, 0.28589922189712524, 0.33123043179512024, 0.17888736724853516, -0.10971061885356903, 0.14945700764656067, -0.14568695425987244, -0.2883373200893402, 0.38292503356933594, 0.27500954270362854, -0.33788853883743286, -0.34935179352760315, 0.13792988657951355, 0.2862608730792999, 0.28163254261016846, 0.5224711298942566, 0.13008643686771393, 0.16610808670520782, -0.25973713397979736, 0.06024739146232605, 0.04180973768234253, 0.4949340522289276, -0.0792025625705719, -0.10805745422840118, 0.052282094955444336, -0.08596150577068329, 0.1923239678144455, -0.10544365644454956, -0.35395678877830505, -0.31607913970947266, 0.21453465521335602, 0.06619081646203995, -0.25533178448677063, -0.0702156126499176, -0.4664463996887207, -0.021125491708517075], [0.23771534860134125, 0.06619103997945786, 0.014044676907360554, 0.13619579374790192, 0.09683462232351303, 0.07361575961112976, 0.0005692456616088748, 0.5135114192962646, 0.029832476750016212, -0.2455950379371643, 0.2758603096008301, 0.03511625528335571, -0.07823097705841064, -0.13131484389305115, 0.04625339061021805, -0.01820615865290165, 0.17733134329319, 0.3691776692867279, 0.06927312165498734, -0.14155729115009308, 0.15162160992622375, -0.16746625304222107, -0.04625590518116951, -0.21150632202625275, 0.389546662569046, -0.33211249113082886, 0.2885393798351288, -0.08858008682727814, -0.059142790734767914, 0.13311220705509186, 0.11886437237262726, 0.3161104619503021, 0.31212279200553894, 0.45058128237724304, 0.09841444343328476, 0.31128644943237305, 0.08716239035129547, 0.11141719669103622, -0.16916298866271973, 0.4545305371284485, 0.3520146310329437, -0.15784351527690887, -0.07444628328084946, 0.2356240153312683, -0.5455851554870605, -0.006996171548962593, -0.11475267261266708, 0.31286242604255676, -0.06117347627878189, 0.14683248102664948, -0.09305312484502792, 0.06328096985816956, -0.14037305116653442, 0.11235485225915909, -0.06295124441385269, -0.2471931278705597, -0.14996135234832764, -0.02772887796163559, 3.882547025568783e-05, -0.18010640144348145, -0.19331109523773193, -0.23933711647987366, -0.14307339489459991, 0.1684434562921524, 0.10531017184257507, -0.27370357513427734, 0.0348401814699173, 0.3229760527610779, 0.21815994381904602, -0.2475486844778061, 0.02729921229183674, 0.1478457748889923], [0.04037578031420708, -0.4979657232761383, 0.34653034806251526, 0.11602788418531418, 0.1816457211971283, -0.03625606745481491, 0.03362647444009781, 0.20937494933605194, 0.3605424761772156, 0.06217120215296745, 0.0662776380777359, -0.381278395652771, 0.12173358350992203, 0.09937099367380142, 0.14564386010169983, 0.3266404867172241, -0.09100548923015594, -0.007300570607185364, 0.16694922745227814, -0.31128036975860596, -0.05935700610280037, 0.3050709366798401, 0.19564272463321686, -0.08640837669372559, -0.07948119193315506, -0.08918102830648422, 0.0766829326748848, 0.4990917444229126, 0.0006441950099542737, -0.4025042951107025, -0.23067490756511688, 0.09901993721723557, 0.13597296178340912, 0.059167731553316116, -0.0379023477435112, 0.2589065730571747, -0.06275077164173126, 0.03854777663946152, 0.27776819467544556, 0.09868437051773071, 0.5266247391700745, 0.4018142819404602, 0.2832363545894623, 0.06465929001569748, 0.14591899514198303, 0.09363693743944168, -0.1894872486591339, -0.25063157081604004, -0.14462700486183167, 0.32323625683784485, 0.18668973445892334, 0.17007143795490265, -0.11505937576293945, 0.2379186898469925, 0.05334122106432915, -0.058022722601890564, -0.13878358900547028, 0.020227454602718353, -0.1847262978553772, 0.18676838278770447, 0.020538590848445892, -0.10224278271198273, -0.22347155213356018, -0.14867977797985077, -0.03266793489456177, 0.0492769293487072, -0.10403096675872803, -0.09807237982749939, -0.03173904865980148, -0.08232681453227997, -0.13135530054569244, 0.11565585434436798], [-0.15216821432113647, 0.3262161314487457, -0.3239074945449829, 0.3007661700248718, -0.09811113029718399, 0.04279617220163345, -0.2370532751083374, 0.2099408060312271, -0.1307441145181656, 0.22467531263828278, 0.3208153545856476, 0.01749044470489025, -0.11565753817558289, 0.07152015715837479, 0.10027856379747391, -0.28434404730796814, 0.2287978082895279, 0.25519874691963196, -0.00838612113147974, -0.4386995732784271, 0.05799019709229469, 0.058310285210609436, 0.3989696204662323, -0.2845858335494995, 0.25606289505958557, -0.32469895482063293, 0.4555113613605499, 0.24234075844287872, -0.06445815414190292, -0.024677207693457603, -0.1582525372505188, 0.2246289700269699, 0.055855460464954376, 0.10979358106851578, -0.19707338511943817, 0.3792800307273865, -0.01197037287056446, 0.3487812876701355, -0.15725697576999664, 0.3377012610435486, 0.209839329123497, -0.5988662838935852, -0.28960126638412476, 0.46382033824920654, -0.5101875066757202, 0.029048848897218704, -0.4769006669521332, 0.14409004151821136, 0.0764780193567276, 0.15196789801120758, -0.23697106540203094, 0.09638645499944687, 0.2863646447658539, 0.22962892055511475, -0.012842696160078049, -0.015553545206785202, -0.1987115740776062, 0.04053443297743797, -0.07727285474538803, 0.3929881751537323, 0.0506339855492115, -0.2885734736919403, -0.07590402662754059, -0.08162683993577957, 0.11163915693759918, -0.2075672298669815, -0.007920950651168823, 0.34834858775138855, 0.4968926012516022, 0.10382772982120514, -0.12137941271066666, -0.131362184882164], [0.25610291957855225, 0.10693445801734924, 0.339386522769928, 0.39983534812927246, -0.0303233303129673, -0.09514615684747696, 0.2949204742908478, 0.017374183982610703, 0.1667361855506897, 0.2905277609825134, -0.3514503240585327, 0.03558116406202316, 0.27061036229133606, 0.46161967515945435, 0.2233782410621643, 0.23676230013370514, 0.03420272096991539, 0.14243184030056, 0.02023783139884472, 0.05511881411075592, 0.05845519155263901, 0.09630700945854187, 0.04632088541984558, 0.24398480355739594, -0.06405246257781982, 0.2361627221107483, -0.20853610336780548, 0.1370297521352768, 0.19640624523162842, 0.08320532739162445, -0.01598244719207287, -0.04569432511925697, 0.21943840384483337, -0.2560925781726837, 0.11283252388238907, 0.45417797565460205, 0.31474024057388306, 0.025031501427292824, 0.4186215102672577, 0.20085836946964264, 0.05594214051961899, 0.1253039687871933, -0.017835265025496483, 0.008729412220418453, 0.4208732843399048, 0.26406973600387573, 0.06846403330564499, -0.12141451984643936, 0.16468743979930878, 0.2694563567638397, 0.19573724269866943, -0.09333812445402145, -0.09657885879278183, -0.18029379844665527, -0.08735120296478271, 0.14371663331985474, 0.13797403872013092, -0.1054021343588829, -0.1208176389336586, 0.10689455270767212, -0.1485680341720581, -0.17548958957195282, -0.033204201608896255, 0.015862345695495605, -0.10954561084508896, -0.028529159724712372, 0.06815889477729797, -0.07603064924478531, -0.18108797073364258, 0.10351759940385818, -0.24535824358463287, 0.07783990353345871], [0.007958861067891121, 0.22573289275169373, 0.2537935674190521, 0.1363980919122696, 0.2879537045955658, -0.34929412603378296, 0.39831143617630005, 0.1934370994567871, -0.05175406485795975, -0.04724389687180519, 0.18773531913757324, 0.04459048807621002, 0.21748468279838562, -0.04428372159600258, 0.11735755950212479, -0.06129477545619011, 0.3884629011154175, 0.23001018166542053, 0.1882423758506775, 0.3931032717227936, 0.2458362728357315, 0.40399399399757385, 0.2979584038257599, -0.46099385619163513, 0.34716567397117615, -0.10630030184984207, 0.03753562271595001, 0.24011914432048798, 0.1470954865217209, 0.0711800828576088, 0.3234131336212158, 0.3131631910800934, 0.39427682757377625, 0.3228153586387634, -0.15851947665214539, -0.032024990767240524, 0.37705692648887634, 0.19434469938278198, 0.07482703030109406, 0.45881548523902893, 0.3006761074066162, -0.06425577402114868, 0.16365160048007965, 0.1952250748872757, 0.20677007734775543, -0.2125799059867859, 0.13814833760261536, 0.11818553507328033, 0.3347492218017578, -0.039001934230327606, 0.014247238636016846, -0.19916655123233795, 0.0605306401848793, -0.347079336643219, -0.10277117788791656, -0.1093747541308403, 0.027164068073034286, 0.009531551040709019, -0.1481400728225708, -0.06365080922842026, -0.06675983965396881, -0.1020597293972969, 0.08254093676805496, 0.009505685418844223, 0.08967811614274979, -0.09385941177606583, 0.3607724606990814, -0.042538292706012726, 0.05097820609807968, -0.2054084837436676, 0.03950215131044388, -0.42306482791900635], [-0.07603120803833008, 0.1329154223203659, -0.23547466099262238, 0.17745044827461243, -0.04517243430018425, 0.31277361512184143, 0.2575603127479553, -0.3045188784599304, 0.11703117191791534, -0.11543279141187668, -0.09399263560771942, -0.1976080983877182, 0.5269170999526978, 0.10713973641395569, 0.02934766747057438, -0.010303311049938202, -0.16160134971141815, 0.39330893754959106, -0.06494738906621933, -0.06767138838768005, 0.23431025445461273, 0.20575794577598572, 0.1832503229379654, -0.12770777940750122, 0.19226276874542236, 0.15856511890888214, 0.19642311334609985, 0.18677490949630737, 0.31132811307907104, -0.13021577894687653, -0.047101542353630066, 0.5891458988189697, -0.07963128387928009, 0.021927712485194206, 0.06217198818922043, 0.2679091691970825, 0.13007962703704834, 0.3162599503993988, 0.33823081851005554, 0.12984059751033783, 0.5650252103805542, 0.2957441806793213, -0.016631130129098892, -0.24909211695194244, 0.22365187108516693, -0.03854347765445709, 0.18811525404453278, -0.04005613550543785, -0.09566345065832138, -0.0833512544631958, 0.044952377676963806, -0.20292331278324127, -0.2873605191707611, 0.0001798431621864438, 0.009441294707357883, 0.3625606298446655, 0.20132561028003693, 0.25641435384750366, 0.1838909536600113, 2.3638276616111398e-05, 0.08047901093959808, -0.07710792124271393, 0.09574873000383377, -0.18148142099380493, -0.04590852931141853, 0.1414880007505417, -0.05985214561223984, -0.08210767805576324, 0.13428576290607452, 0.021860025823116302, 0.14321233332157135, -0.005832156632095575], [0.23054508864879608, 0.005674932152032852, 0.17923912405967712, 0.07226961851119995, 0.10111305862665176, -0.50971919298172, 0.11484529078006744, 0.15760232508182526, 0.3472614288330078, 0.14228284358978271, -0.13435406982898712, -0.02735862508416176, 0.3383379280567169, 0.37378618121147156, -0.14840258657932281, 0.08355847001075745, 0.21308939158916473, 0.5947683453559875, 0.10546587407588959, 0.09099254012107849, 0.04326619952917099, -0.05375732481479645, 0.3937481939792633, 0.21905474364757538, 0.18469874560832977, 0.23652338981628418, 0.4396950304508209, 0.25583192706108093, 0.2778302729129791, 0.0404159240424633, 0.11516135931015015, 0.3376004993915558, -0.015253796242177486, -0.2639196813106537, -0.007858297787606716, 0.12597666680812836, 0.2221091240644455, 0.2545885145664215, 0.07683281600475311, 0.5086440443992615, 0.3067375421524048, -0.1704312115907669, 0.2438286393880844, 0.16052177548408508, -0.5243349671363831, -0.30721673369407654, -0.29887714982032776, -0.16437172889709473, -0.07610401511192322, 0.15695427358150482, 0.05219528451561928, 0.022803444415330887, -0.04342518374323845, -0.26352062821388245, -0.22416390478610992, 0.2939937710762024, 0.0062645976431667805, -0.13478676974773407, -0.17547234892845154, 0.3556218147277832, -0.04840376228094101, -0.14134126901626587, -0.037513621151447296, 0.012867487967014313, 0.19954191148281097, -0.09100018441677094, -0.12295949459075928, -0.2578220069408417, 0.05744926258921623, -0.2572455406188965, -0.13454808294773102, 0.024368461221456528], [0.11331513524055481, 0.16967356204986572, 0.14020602405071259, 0.5023030042648315, 0.1502695232629776, -0.15426383912563324, 0.14374606311321259, 0.02549154683947563, -0.24500273168087006, 0.048594750463962555, 0.030141334980726242, -0.2530011236667633, 0.31433573365211487, 0.3133973181247711, 0.0625205710530281, -0.5329155921936035, -0.047412604093551636, 0.034267887473106384, 0.16385893523693085, -0.16376857459545135, 0.09671443700790405, 0.3300054967403412, -0.15961715579032898, 0.4569157361984253, 0.2322077453136444, 0.14699126780033112, 0.14138701558113098, 0.39253148436546326, 0.37903741002082825, 0.054670751094818115, 0.05085769295692444, 0.025176702067255974, 0.12488579750061035, -0.02207978442311287, 0.030796267092227936, -0.08258044719696045, -0.06004428490996361, 0.1438305526971817, -0.018741164356470108, 0.3202023506164551, 0.18534722924232483, -0.10101303458213806, 0.15608561038970947, 0.07920216768980026, 0.02052987366914749, 0.13798585534095764, -0.23278182744979858, 0.06224540248513222, -0.15725956857204437, -0.20711293816566467, -0.06635734438896179, 0.1916397511959076, 0.028071066364645958, -0.27444401383399963, 0.21722684800624847, 0.15707969665527344, 0.16063983738422394, -0.06011759489774704, -0.1342761069536209, -0.2624727189540863, -0.1390077769756317, -0.24507111310958862, 0.1371980905532837, 0.3366411626338959, 0.021497247740626335, -0.2179921567440033, -0.0393628291785717, -0.17305049300193787, -0.1404465138912201, 0.07084405422210693, 0.04625170677900314, 0.023895330727100372], [0.5031008124351501, 0.20098137855529785, 0.29015523195266724, 0.006707688793540001, 0.3568671941757202, -0.18368080258369446, 0.0810989961028099, 0.2241847813129425, -0.14314183592796326, -0.2332046926021576, -0.07322423905134201, 0.10453455150127411, 0.19326840341091156, 0.11542780697345734, 0.17984630167484283, 0.36754560470581055, 0.24506019055843353, 0.28902187943458557, 0.8361439108848572, 0.7682763934135437, -0.23895426094532013, 0.8419973850250244, 0.5129383206367493, 0.2443186640739441, 0.32238614559173584, -0.13461482524871826, -0.3032827079296112, 0.3972988724708557, -0.23719142377376556, -0.12968090176582336, 0.3475080728530884, 0.23041753470897675, 0.3159899413585663, 0.39728158712387085, 0.04152172803878784, 0.2595236599445343, 0.114213727414608, -0.20574046671390533, 0.20673789083957672, 0.38092586398124695, 0.4139999747276306, 0.13224659860134125, 0.10441084206104279, -0.4712654650211334, 0.17413033545017242, -0.34004178643226624, 0.5267435908317566, 0.017390530556440353, 0.04506548121571541, -0.22326739132404327, -0.03229590505361557, -0.267901211977005, 0.1652355194091797, -0.32387775182724, -0.2892589867115021, -0.06969469785690308, 0.30011579394340515, 0.12209413945674896, -0.49661481380462646, 0.026106178760528564, 0.11999168246984482, -0.20406489074230194, -0.032253433018922806, 0.03559059649705887, -0.2706025540828705, 0.004263683687895536, 0.18310163915157318, -0.2010602355003357, -0.22379958629608154, -0.19518344104290009, -0.12560425698757172, -0.26699650287628174], [0.06125173717737198, -0.30925101041793823, 0.06591016799211502, 0.14122654497623444, -0.1737377792596817, -0.9799113273620605, -0.5496826767921448, -0.28375890851020813, 0.3400103747844696, -0.3877480924129486, -0.07681901007890701, -0.07393161952495575, -0.24073204398155212, 0.051279082894325256, -0.5214901566505432, -0.5303818583488464, -0.1886502504348755, -0.26945778727531433, 0.02238055132329464, -0.34501349925994873, -0.02057006023824215, -0.0840853825211525, -0.3663424551486969, -0.010017067193984985, 0.10663364827632904, -0.07912632822990417, 0.20346638560295105, 0.4780106544494629, 0.23090454936027527, 0.154014453291893, 0.47796615958213806, 0.4669135510921478, -0.17894573509693146, -0.24194471538066864, -0.009974906221032143, 0.39634931087493896, 0.34500187635421753, -0.03716326504945755, 0.19606736302375793, 0.2800055742263794, 0.4065842032432556, 0.10091149806976318, 0.05897379294037819, 0.244608074426651, -0.21469087898731232, -0.14371170103549957, 0.34229305386543274, -0.2079325020313263, -0.2378278374671936, -0.4578154981136322, 0.18886417150497437, 0.13131295144557953, -0.27098947763442993, 0.33762094378471375, -0.15062834322452545, 0.18965314328670502, 0.07588225603103638, 0.40768659114837646, -0.03230902925133705, -0.19566048681735992, 0.32314762473106384, -0.13155163824558258, 0.4656781554222107, -0.3762933313846588, 0.24539998173713684, -0.14369378983974457, -0.26044031977653503, -0.08111585676670074, 0.002557816682383418, 0.12764745950698853, 0.11227289587259293, -0.07425685971975327], [0.27441510558128357, 0.25367170572280884, -0.1192268431186676, -0.2353459894657135, 0.32425209879875183, 0.21690553426742554, -0.19514437019824982, 0.015721598640084267, -0.02831329219043255, 0.4399843215942383, 0.30901196599006653, 0.03669353947043419, 0.6613737940788269, -0.1708047091960907, 0.30988243222236633, 0.2331477552652359, -0.014799945056438446, 0.5905472636222839, 0.33751848340034485, 0.08885680139064789, 0.04288719967007637, 0.18939228355884552, 0.8789408206939697, -0.2627623975276947, -0.1119699478149414, 0.16663986444473267, 0.3029760420322418, 0.5110688805580139, -0.23577880859375, 0.012909905053675175, 0.29414424300193787, 0.2521379888057709, -0.22110123932361603, -0.20563428103923798, 0.36600348353385925, 0.3788096010684967, -0.30140355229377747, -0.1518729031085968, 0.2425599843263626, 0.24258829653263092, 0.32085153460502625, 0.2911975383758545, -0.054178863763809204, -0.30253130197525024, -0.3423802852630615, -0.45424848794937134, -0.10803022980690002, -0.22752924263477325, 0.09816110879182816, 0.11843925714492798, -0.2513924837112427, 0.2298782467842102, 0.33092257380485535, -0.02147050015628338, -0.41243743896484375, 0.011732041835784912, 0.2883792221546173, -0.0714716985821724, -0.16299854218959808, -0.15978896617889404, 0.05647790804505348, 0.2945079803466797, -0.12462882697582245, -0.11140234023332596, -0.0507851168513298, -0.05195912346243858, 0.1530604064464569, -0.5346962213516235, 0.06515376269817352, -0.5050056576728821, -0.17872017621994019, -0.24154876172542572], [-0.13645389676094055, -0.3296203017234802, 0.2075648158788681, 0.0006252074963413179, 0.39243003726005554, 0.1862231343984604, 0.26553279161453247, 0.3604435920715332, -0.7719900012016296, 0.47034958004951477, -0.09539245069026947, -0.07159222662448883, 0.213225856423378, 0.17125867307186127, -1.0407108068466187, -0.20566339790821075, -0.09354047477245331, -0.21552212536334991, 0.0751839354634285, -0.5312508344650269, -0.11596915125846863, 0.10029790550470352, -0.1652098149061203, 0.024417461827397346, -0.19427472352981567, -0.03703412786126137, -0.15356090664863586, 0.4309508502483368, -0.11135195940732956, 0.23028121888637543, -0.04920274019241333, 0.03865610435605049, -0.03480085730552673, 0.15610194206237793, -0.20460695028305054, 0.11569651961326599, -0.10625174641609192, -0.15221907198429108, 0.1390966922044754, 0.1998087614774704, 0.39838266372680664, -0.018120506778359413, 0.08860772848129272, 0.07754584401845932, 0.0978541374206543, -0.07434523850679398, -0.18104587495326996, 0.31084465980529785, -0.20096229016780853, -0.3882144093513489, 0.1335321068763733, -0.2195996344089508, 0.19188500940799713, 0.17052999138832092, -0.10004118084907532, -0.01539646741002798, -0.23870302736759186, -0.18017368018627167, 0.15274840593338013, -0.3150898814201355, -0.08947902917861938, -0.03617970645427704, 0.5779536962509155, 0.17448173463344574, -0.2322390228509903, 0.061997219920158386, 0.21121832728385925, -0.18923482298851013, -0.23517775535583496, 0.018913187086582184, 0.1665240377187729, -0.06129921227693558], [-0.03298855200409889, 0.015146027319133282, -0.017201563343405724, 0.23761235177516937, -0.2343798577785492, 0.026592014357447624, 0.11947684735059738, -0.05510377883911133, 0.27270838618278503, 0.24372129142284393, -0.007508430164307356, 0.06255443394184113, -0.019421227276325226, 0.21024981141090393, -0.21818089485168457, -0.2660103142261505, 0.24178104102611542, 0.4953467547893524, 0.23004229366779327, -0.11552635580301285, 0.011953197419643402, -0.06630910933017731, -0.028901277109980583, 0.04838993027806282, -0.13908763229846954, 0.06689119338989258, 0.04011206701397896, 0.2506173253059387, -0.02745082601904869, 0.07206747680902481, -0.09090209752321243, 0.043686896562576294, 0.17681698501110077, 0.22541184723377228, -0.09516206383705139, 0.19702520966529846, 0.27160710096359253, 0.2201622575521469, -0.1801629364490509, 0.3539173901081085, 0.4205038547515869, -0.08188150078058243, -0.20182368159294128, 0.04209817945957184, -0.002556395251303911, 0.02822432853281498, 0.07008352875709534, -0.19300708174705505, 0.01651526428759098, 0.040878139436244965, 0.0955243706703186, -0.19566844403743744, -0.26274317502975464, 0.04109575226902962, -0.017635969445109367, 0.24242210388183594, -0.3178098797798157, -0.03206663578748703, 0.01319341640919447, 0.16270773112773895, -0.0991285890340805, -0.19033768773078918, -0.0753713846206665, 0.21765266358852386, -0.08850843459367752, 0.15644066035747528, -0.07227133959531784, -0.09670188277959824, -0.21174007654190063, -0.07731033116579056, -0.1419309675693512, 0.02783414162695408], [-0.3640185296535492, 0.06215966120362282, -0.15585623681545258, -0.04158841818571091, 0.16819098591804504, 0.1336408406496048, -0.08610086143016815, -0.10729522258043289, -0.12094537168741226, -0.453014612197876, -0.24454526603221893, -0.0013739808928221464, 0.1007443442940712, 0.20244312286376953, -0.26346102356910706, 0.4349723160266876, 0.4320486783981323, 0.10549087822437286, -0.2102985680103302, -0.1983184963464737, -0.034518178552389145, 0.05659421160817146, 0.23031391203403473, 0.22728444635868073, 0.1698927879333496, 0.06332521885633469, 0.27682048082351685, 0.3210754096508026, -0.07841391116380692, -0.22600862383842468, -0.2829563617706299, 0.2050725370645523, 0.4378546476364136, 0.0010527976555749774, -0.06268253177404404, 0.06412919610738754, -0.10712742805480957, 0.3026770353317261, 0.04470513388514519, 0.07805153727531433, 0.23624995350837708, 0.18009933829307556, 0.24280951917171478, 0.11134673655033112, -0.3539440631866455, 0.2623852491378784, -0.1691920906305313, 0.2648041248321533, -0.30252805352211, -0.09993427246809006, -0.2109670639038086, -0.2807117998600006, 0.052219897508621216, 0.17347131669521332, 0.140825092792511, 0.03630993515253067, 0.19589915871620178, -0.32925111055374146, 0.19178815186023712, 0.20624038577079773, -0.24526378512382507, -0.0015151235274970531, -0.293222039937973, -0.10495997965335846, -0.06120700016617775, 0.15875400602817535, -0.31005775928497314, 0.34949761629104614, 0.3670658767223358, -0.004821108654141426, 0.023235468193888664, -0.1377498209476471], [-0.14764617383480072, -0.16182947158813477, 0.04450911283493042, 0.15265078842639923, -0.02066045068204403, 0.31261277198791504, 0.0014663691399618983, 0.17860834300518036, -0.021792951971292496, -0.02839309349656105, 0.062232259660959244, -0.1709095537662506, -0.00820021890103817, 0.00010180260869674385, 0.171043261885643, 0.07992875576019287, 0.33130258321762085, 0.45720210671424866, 0.014412524178624153, 0.2737734317779541, 0.19089825451374054, -0.10377763956785202, -0.15501105785369873, 0.1284029632806778, 0.1995655745267868, -0.034503303468227386, 0.21216967701911926, 0.15413248538970947, 0.08511991053819656, 0.12437346577644348, 0.12496496737003326, 0.1921815425157547, -0.06848686933517456, -0.2572779655456543, 0.03981440141797066, 0.31538698077201843, 0.3413945138454437, -0.11677095293998718, 0.16664020717144012, 0.3996118903160095, 0.4135613739490509, 0.1551104336977005, -0.1261172592639923, 0.09565464407205582, 0.09983904659748077, 0.14828364551067352, 0.04130517318844795, 0.14157617092132568, -0.24396976828575134, 0.19739708304405212, -0.14115385711193085, 0.0009442436276003718, -0.14709407091140747, -0.0667298436164856, 0.1349710077047348, -0.04134291037917137, -0.057924434542655945, 0.038626864552497864, -0.1205383688211441, 0.22658728063106537, 0.042049840092659, -0.0367429256439209, 0.1621437817811966, 0.057306159287691116, 0.16277866065502167, -0.2079412341117859, 0.0045028734020888805, -0.08957955241203308, 0.045640695840120316, 0.23925898969173431, 0.19987407326698303, 0.07771187275648117], [-0.08197084069252014, 0.17430372536182404, 0.029808271676301956, 0.33115559816360474, -0.17026907205581665, -0.13491322100162506, -0.3231741786003113, 0.2591589689254761, -0.17612750828266144, -0.0011128466576337814, -0.16893503069877625, -0.005437307991087437, -0.09476881474256516, -0.026346499100327492, 0.024347487837076187, 0.04887303709983826, 0.30772504210472107, 0.366016149520874, 0.5566720962524414, 0.23740233480930328, -0.05017227306962013, 0.10559149086475372, -0.09828156977891922, 0.15405191481113434, -0.106622613966465, 0.1601385772228241, 0.09411942213773727, 0.27524417638778687, 0.2969299554824829, 0.04478509724140167, -0.25086504220962524, 0.08216431736946106, 0.1655605286359787, -0.1293247789144516, 0.30825668573379517, 0.081606924533844, 0.1679656207561493, 0.0366019569337368, 0.032732415944337845, 0.1792602688074112, 0.19010134041309357, 0.18979251384735107, -0.07775502651929855, 0.042515672743320465, -0.3211541175842285, 0.3102658689022064, -0.05761377885937691, 0.26642465591430664, -0.1579703986644745, -0.1193072572350502, -0.19540661573410034, -0.08813536167144775, -0.2737036645412445, -0.14970406889915466, 0.28425332903862, 0.3390672504901886, -0.09448359906673431, -0.09732167422771454, 0.31549978256225586, 0.026438338682055473, -0.34282588958740234, -0.34749820828437805, -0.3152523338794708, 0.13490276038646698, -0.11253352463245392, 0.1255381852388382, 0.08891429752111435, 0.1330580711364746, 0.1925993412733078, -0.06298965215682983, 0.24156588315963745, 0.02191309444606304], [0.12329624593257904, -0.05198635905981064, 0.02317718416452408, 0.11112186312675476, -0.12907062470912933, -0.3489750623703003, 0.1937279850244522, 0.06850967556238174, -0.236833855509758, 0.09267376363277435, -0.1115691065788269, -0.0675736665725708, 0.3251058757305145, 0.1809326708316803, 0.02292991429567337, 0.07184284925460815, 0.23994040489196777, 0.31008267402648926, 0.3726540207862854, -0.24961258471012115, 0.1503724753856659, 0.03017321228981018, -0.07044611871242523, -0.34449824690818787, 0.2549382448196411, 0.12516893446445465, 0.16399508714675903, 0.14475633203983307, 0.27646586298942566, -0.09008266776800156, 0.011801068671047688, 0.17103621363639832, -0.21212336421012878, -0.09047842770814896, 0.3243040442466736, 0.42330029606819153, 0.22230039536952972, 0.2925238311290741, -0.09845013171434402, 0.46950551867485046, 0.3137902021408081, 0.29328981041908264, 0.16148608922958374, 0.1839948445558548, -0.22259657084941864, 0.2448258250951767, -0.1297578662633896, -0.267782598733902, 0.09386253356933594, 0.1833922415971756, 0.1736561506986618, -0.034769367426633835, 0.11191824078559875, 0.18647922575473785, 0.04894772544503212, 0.2218397557735443, -0.22380949556827545, -0.09835468232631683, 0.19134525954723358, -0.23189404606819153, 0.12275460362434387, 0.04954029247164726, -0.020769892260432243, 0.043562520295381546, 0.2034349888563156, 0.004309552721679211, 0.10622093826532364, 0.16886207461357117, -0.12664757668972015, -0.06408567726612091, 0.20391765236854553, 0.15625028312206268], [0.08053058385848999, 0.20500674843788147, 0.38748106360435486, 0.23380562663078308, -0.21668711304664612, 0.1855020970106125, -0.07216808944940567, 0.030793875455856323, 0.04820570349693298, -0.19986873865127563, 0.31625014543533325, 0.2662145793437958, 0.08635970205068588, 0.3944697976112366, 0.12458828091621399, -0.11086292564868927, 0.26881349086761475, -0.23187582194805145, -0.1679811179637909, 0.12632900476455688, 0.26902785897254944, -0.0926489606499672, 0.21649016439914703, -0.4304606020450592, 0.188031867146492, -0.3138079047203064, 0.17830105125904083, 0.3670482337474823, 0.21671532094478607, -0.11019638925790787, 0.3363887369632721, 0.31038621068000793, -0.15206626057624817, 0.2326136976480484, -0.2254423201084137, 0.10425877571105957, -0.0038895588368177414, 0.07681596279144287, 0.15096230804920197, 0.5107585191726685, 0.05667686089873314, 0.2567514181137085, 0.07013815641403198, 0.33754053711891174, -0.0036733136512339115, -0.157222718000412, 0.2039705216884613, 0.029112184420228004, 0.056710630655288696, 0.010511694476008415, -0.1473231315612793, 0.16903056204319, -0.12785270810127258, -0.03209894895553589, -0.16798000037670135, 0.08036072552204132, -0.0306913573294878, -0.20489764213562012, 0.06576181948184967, 0.16782072186470032, -0.004299572668969631, 0.2311587929725647, -0.06912954151630402, -0.08499612659215927, -0.0018153940327465534, 0.038047123700380325, 0.2659859359264374, -0.02885681577026844, 0.11640387028455734, 0.043898213654756546, -0.0487690269947052, 0.02385329268872738], [0.06618607044219971, 0.15059936046600342, -0.08729909360408783, 0.06753527373075485, 0.22144977748394012, -0.15725131332874298, -0.062339138239622116, 0.31528398394584656, 0.04878104105591774, 0.053650643676519394, 0.1282080113887787, -0.18605725467205048, 0.14220170676708221, -0.11310553550720215, 0.22633826732635498, 0.1001124456524849, 0.27900978922843933, 0.02769838646054268, -0.06427265703678131, -0.12417921423912048, 0.2365630716085434, -0.21053999662399292, 0.2839263081550598, 0.0050900774076581, 0.2721167504787445, 0.16406956315040588, -0.006215046159923077, 0.16937799751758575, 0.1657949835062027, 0.14945253729820251, 0.09399009495973587, 0.31530508399009705, 0.0796671137213707, 0.14559395611286163, 0.13819628953933716, 0.2055312544107437, -0.05716690793633461, -0.10108691453933716, 0.2641963064670563, 0.49756988883018494, 0.3839443325996399, 0.24117228388786316, 0.22955018281936646, 0.15777315199375153, -0.02030978910624981, 0.08594866096973419, 0.12257253378629684, -0.028973547741770744, -0.161836177110672, -0.14725282788276672, -0.11935172975063324, 0.08032577484846115, -0.07245681434869766, 0.003502831794321537, 0.24633249640464783, 0.274578332901001, 0.032700397074222565, 0.08391351252794266, 0.02961372770369053, -0.21908031404018402, 0.1243925392627716, -0.13826635479927063, -0.10622324049472809, -0.16942204535007477, -0.11111291497945786, -0.22679945826530457, 0.07343561947345734, 0.1875692456960678, 0.05855271965265274, 0.11762013286352158, -0.2337622344493866, 0.205184668302536], [-0.21874482929706573, 0.01380561850965023, 0.3585498332977295, 0.4199577867984772, 0.059020206332206726, 0.019662225618958473, 0.4152889549732208, 0.0415029339492321, 0.12422715127468109, 0.16521424055099487, 0.13294467329978943, 0.3082348704338074, 0.07560074329376221, 0.3018394112586975, 0.07372584193944931, 0.10555049777030945, 0.3925306797027588, 0.08654298633337021, -0.19785822927951813, 0.20779062807559967, 0.24742014706134796, -0.1342116743326187, 0.20031435787677765, -0.0943814367055893, -0.05865848809480667, 0.007500216830521822, 0.030041124671697617, 0.26740792393684387, -0.03672954812645912, 0.26296719908714294, 0.21541669964790344, 0.0840076357126236, 0.3472486138343811, 0.12672744691371918, 0.13274608552455902, 0.24935173988342285, 0.22190390527248383, 0.14431817829608917, 0.03666242957115173, 0.4867098033428192, 0.0234952662140131, -0.04023559018969536, -0.250677227973938, 0.10223497450351715, -0.13554581999778748, 0.27197715640068054, -0.13032843172550201, 0.36145782470703125, 0.20301048457622528, 0.007260079961270094, 0.004722205456346273, 0.053806278854608536, -0.10187831521034241, -0.015280024148523808, 0.12813566625118256, -0.0716894268989563, -0.030360130593180656, 0.13202887773513794, -0.11061929911375046, 0.02497735433280468, -0.062086306512355804, 0.14585250616073608, -0.10798224061727524, 0.18902777135372162, -0.13810856640338898, -0.12315638363361359, 0.24829384684562683, 0.08486308157444, 0.1755199432373047, -0.24860838055610657, 0.022328251972794533, -0.1597837507724762], [0.30475497245788574, 0.10125721246004105, 0.14999066293239594, -0.030621783807873726, -0.03690400347113609, -0.0017676353454589844, -0.06400424987077713, -0.10033981502056122, 0.4057294428348541, 0.013828163966536522, 0.009939419105648994, -0.047919824719429016, -0.10587034374475479, 0.32817745208740234, 0.09360421448945999, -0.3813225030899048, 0.2653214931488037, 0.07785563170909882, 0.12128843367099762, 0.4023505747318268, 0.19257347285747528, -0.2848846912384033, -0.08504579961299896, 0.25530168414115906, 0.29958266019821167, 0.24069078266620636, -0.028819482773542404, 0.17692254483699799, 0.3126062750816345, 0.21201221644878387, -0.1197500228881836, 0.07568549364805222, 0.12716922163963318, -0.12666043639183044, 0.2076742947101593, 0.4683944880962372, 0.18379269540309906, 0.16574184596538544, 0.11148449033498764, 0.48833388090133667, 0.4595254957675934, 0.36770352721214294, 0.2440798580646515, -0.11059071868658066, -0.08738887310028076, 0.15608400106430054, 0.16248132288455963, -0.2431684285402298, 0.025313153862953186, 0.039406415075063705, 0.07044759392738342, -0.16561299562454224, 0.1808210015296936, -0.07378129661083221, 0.019072355702519417, 0.12832587957382202, 0.06483496725559235, 0.020895425230264664, -0.08534560352563858, -0.1058809757232666, 0.0019722909200936556, 0.0022867294028401375, -0.06796272844076157, 0.16555896401405334, -0.03155884891748428, -0.13555306196212769, -0.12360834330320358, -0.09811346977949142, 0.010558311827480793, 0.18383881449699402, 0.27518370747566223, 0.08140849322080612], [-0.05756295472383499, 0.24345937371253967, -0.042726583778858185, 0.25355860590934753, 0.08760406076908112, 0.18265174329280853, -0.33917880058288574, 0.1908012181520462, 0.028635350987315178, -0.07430139183998108, 0.2138494849205017, 0.18873994052410126, 0.29158642888069153, 0.10230305045843124, -0.20570284128189087, 0.022149888798594475, 0.2861858308315277, 0.27284538745880127, 0.03880712017416954, 0.14563211798667908, 0.3636717200279236, -0.06257506459951401, 0.11048676818609238, -0.28008782863616943, 0.2485625296831131, -0.24132026731967926, -0.12077175080776215, 0.34632906317710876, 0.29121312499046326, -0.039434585720300674, 0.2517615258693695, 0.17908741533756256, -0.29150304198265076, 0.3089260458946228, -0.3643396496772766, -0.02922229841351509, -0.04043923318386078, 0.052037231624126434, 0.052896421402692795, 0.17995677888393402, 0.25822314620018005, 0.00992350373417139, 0.12105512619018555, -0.21857711672782898, -0.46116286516189575, -0.28854304552078247, 0.43523305654525757, 0.0985213965177536, 0.041364885866642, -0.10752611607313156, -0.12020015716552734, -0.1116132065653801, -0.24084360897541046, 0.06164523586630821, 0.017186371609568596, 0.23903216421604156, 0.15995851159095764, -0.2278522104024887, 0.005547079257667065, 0.04902338981628418, -0.26668527722358704, -0.09003420174121857, -0.27063435316085815, -0.13383719325065613, -0.02196316048502922, -0.07579348981380463, 0.004011297132819891, 0.03908271715044975, 0.3154643774032593, -0.03794320672750473, -0.14142832159996033, -0.2916879951953888], [-0.16878381371498108, 0.18968266248703003, 0.08997809141874313, -0.0769088864326477, -0.01656103879213333, -0.09697818756103516, -0.19857297837734222, 0.2066287249326706, 0.11787732690572739, 0.031290024518966675, -0.08578017354011536, -0.25018393993377686, 0.12759031355381012, -0.07028850167989731, -0.21867814660072327, 0.15712870657444, 0.08672500401735306, 0.017431819811463356, 0.09861357510089874, -0.16626618802547455, 0.23706893622875214, 0.016363106667995453, 0.27636194229125977, 0.06175952032208443, -0.01197342574596405, 0.08668337762355804, -0.017289629206061363, 0.21571636199951172, -0.14721685647964478, -0.18748818337917328, 0.1936628222465515, 0.16010725498199463, -0.2590104937553406, -0.28549912571907043, -0.059815891087055206, 0.32603010535240173, 0.2440941333770752, -0.1462743729352951, -0.09586385637521744, 0.4532146155834198, 0.38627558946609497, 0.27157703042030334, 0.2682429552078247, -0.05270656198263168, 0.07874339818954468, 0.09953983873128891, 0.005923838820308447, -0.1691700518131256, -0.09475510567426682, 0.03806886449456215, -0.022738788276910782, 0.21397852897644043, -0.1549576073884964, 0.04713132604956627, 0.21191418170928955, -0.07809696346521378, 0.14080631732940674, 0.11869700998067856, 0.16468898952007294, -0.07581958174705505, -0.039936769753694534, -0.07384777814149857, 0.1919548660516739, 0.023982174694538116, 0.09861529618501663, -0.1534971445798874, -0.11132549494504929, 0.0343504399061203, 0.07929949462413788, 0.07252392172813416, -0.24500496685504913, 0.11153587698936462], [-0.268960177898407, 0.5101914405822754, -0.003357580164447427, 0.24783509969711304, 0.17036737501621246, -0.25784948468208313, 0.12794040143489838, 0.309972882270813, -0.23207511007785797, 0.1361832469701767, 0.0977625921368599, 0.26050323247909546, 0.04900958761572838, 0.08473511040210724, -0.26101598143577576, -0.10371332615613937, 0.050706345587968826, -0.03171315789222717, 0.05555584654211998, 0.06621607393026352, 0.1713726669549942, 0.45807936787605286, 0.090666763484478, 0.2963777482509613, 0.3714492619037628, -0.34603989124298096, 0.11215731501579285, 0.014771626330912113, 0.23515604436397552, 0.3968440294265747, 0.05099479854106903, 0.16375446319580078, -0.0014119056286290288, 0.17466787993907928, 0.21686391532421112, -0.02987694926559925, 0.07775633782148361, 0.043981753289699554, 0.08809521794319153, 0.5053437352180481, 0.007796877529472113, -0.045762185007333755, -0.08973941206932068, 0.35694316029548645, -0.29563406109809875, -0.1366186887025833, -0.2623904347419739, -0.10941746830940247, 0.20105142891407013, -0.04555077850818634, -0.024999750778079033, -0.24518442153930664, -0.0973539799451828, -0.2034440040588379, 0.15866997838020325, -0.1669071763753891, 0.2116319239139557, 0.06015952304005623, -0.045736853033304214, 0.06734031438827515, -0.0445290207862854, 0.046330422163009644, -0.34992238879203796, 0.22895824909210205, -0.13400804996490479, -0.27143213152885437, -0.11930368095636368, 0.0821087434887886, -0.10659126937389374, -0.049353111535310745, -0.20282644033432007, -0.025240078568458557]], "gru_recurrent_kernel": [[0.1090976893901825, 0.16846124827861786, -0.2055373638868332, -0.29025906324386597, -0.35190141201019287, -0.438632607460022, 0.3539062440395355, -0.1129867434501648, 0.20672141015529633, 0.24696558713912964, 0.27932149171829224, -0.3304564952850342, -0.3536626398563385, 0.03724120929837227, 0.2615531086921692, -0.06159132346510887, -0.10836700350046158, 0.20891264081001282, 0.10650154203176498, 0.2870192229747772, 0.10981208086013794, 0.1955447793006897, 0.6035162806510925, 0.6034700274467468, 0.3824876546859741, -0.03552863374352455, 0.22321729362010956, -0.11816373467445374, 0.12707969546318054, 0.3975766897201538, -0.3573286533355713, -0.0022019550669938326, 0.19448232650756836, 0.5463891625404358, 0.31581956148147583, 0.10808723419904709, 0.061389416456222534, 0.07935772091150284, -0.18435940146446228, 0.2701976001262665, -0.1154637336730957, -0.4492388367652893, -0.2595294117927551, 0.09898113459348679, 0.04552462324500084, 0.1512446403503418, -0.4884995222091675, 0.2303449958562851, 0.21114830672740936, 0.3311712145805359, -0.1748719960451126, 0.025150509551167488, 0.03126100078225136, -0.16756795346736908, -0.1089235320687294, -0.1521577090024948, -0.16288354992866516, 0.13920164108276367, 0.2310284823179245, 0.14730466902256012, 0.0986008271574974, 0.28618890047073364, 0.06188497692346573, -0.03357387334108353, -0.06411570310592651, 0.19035886228084564, 0.11852265894412994, -0.19382047653198242, 0.09489487111568451, -0.2366187572479248, 0.16379214823246002, 0.09031295776367188], [-0.23906590044498444, -0.11686644703149796, 0.030853869393467903, 0.2274346500635147, -0.15607602894306183, -0.3432003855705261, -0.339353084564209, -0.19151152670383453, 0.10590488463640213, -0.3768933117389679, -0.5036418437957764, -0.2286931723356247, -0.1486273556947708, 0.19750472903251648, -0.42794427275657654, -0.471489280462265, 0.03716885298490524, 0.1952177882194519, -0.08515124768018723, -0.027427200227975845, 0.2050541639328003, -0.11189847439527512, 0.027830269187688828, 0.3392517566680908, -0.025884978473186493, -0.050416842103004456, 0.14907380938529968, 0.07192245125770569, -0.12573598325252533, -0.14937636256217957, 0.019672183319926262, 0.4423454999923706, -0.5529718995094299, 0.23028260469436646, 0.07755687087774277, -0.13916578888893127, -0.3276219069957733, 0.11326118558645248, -0.3442596197128296, -0.7031130194664001, 0.12201676517724991, 0.4078524708747864, 0.0462162010371685, -0.0948270633816719, 0.1387222707271576, -0.08929357677698135, -0.07583750784397125, -0.2533770799636841, -0.3715059757232666, 0.7721898555755615, 0.038947951048612595, 0.2725600302219391, -0.033088382333517075, 0.0017668772488832474, 0.04272624850273132, -0.010664474219083786, 0.038102056831121445, -0.10861584544181824, -0.20322571694850922, 0.5131852626800537, -0.23259897530078888, -0.10879268497228622, -0.25527915358543396, 0.2792174518108368, -0.07694820314645767, -0.1952650249004364, -0.20719467103481293, 0.149003267288208, -0.08416333794593811, -0.05959567427635193, -0.20103223621845245, 0.10515798628330231], [0.1864183396100998, 0.08747532963752747, -0.22623245418071747, -0.44548162817955017, -0.35668250918388367, 0.030880428850650787, -0.20358321070671082, -0.007115398533642292, -0.17237365245819092, 0.03406517580151558, 0.03608449175953865, -0.08433922380208969, 0.031741395592689514, 0.18029378354549408, -0.10830219835042953, 0.2775079607963562, -0.16163693368434906, -0.47501856088638306, -0.14240671694278717, -0.20724022388458252, -0.3643513321876526, 0.022133152931928635, -0.18955928087234497, 0.010277393274009228, -0.14493736624717712, 0.3346276581287384, -0.2843727171421051, -0.20321890711784363, 0.27214276790618896, 0.11862386018037796, -0.24603071808815002, -0.15226295590400696, 0.04439236596226692, -0.2828390896320343, -0.12020984292030334, -0.2772919833660126, -0.11931657791137695, 0.08781140297651291, -0.16097888350486755, -0.20961657166481018, -0.2038051038980484, 0.051815785467624664, -0.2581011950969696, 0.03927226364612579, -0.06440917402505875, -0.03943305462598801, -0.21443770825862885, -0.021643320098519325, -0.14292600750923157, 0.0967986211180687, 0.14954091608524323, 0.08056584745645523, 0.4202169179916382, 0.1258520483970642, -0.09281691908836365, -0.6535876393318176, -0.07101169228553772, 0.21873295307159424, 0.13428914546966553, -0.2753162980079651, 0.20813854038715363, -0.08630138635635376, 0.2565355896949768, 0.08399433642625809, -0.17859849333763123, -0.0639764592051506, -0.08940261602401733, -0.06656788289546967, 0.058310188353061676, -0.0024851083289831877, -0.04538075625896454, 0.20955999195575714], [-0.3146642744541168, -0.1014149859547615, 0.07053688168525696, -0.22441412508487701, -0.3057226538658142, -0.0648052766919136, -0.42558178305625916, -0.04023239389061928, 0.39477893710136414, -0.5613061785697937, 0.25458791851997375, -0.20847398042678833, -0.6414828896522522, -0.8531036376953125, 0.07493333518505096, -0.4876675605773926, 0.003695070743560791, 0.3212224245071411, -0.180216982960701, -0.8163058757781982, -0.3714260756969452, 0.18263429403305054, -0.35387685894966125, -0.49739715456962585, 0.20019318163394928, -0.4253848195075989, 0.36436232924461365, 0.04457245394587517, 0.08101112395524979, 0.1536073237657547, 0.15274663269519806, -0.10113280266523361, -0.30741414427757263, 0.2516290545463562, -0.21208730340003967, -0.16526144742965698, -0.200314000248909, -0.2625349462032318, -0.10984857380390167, -0.24986602365970612, -0.28932446241378784, 0.25589844584465027, 0.41467031836509705, -0.1377280205488205, 0.006587663199752569, 0.2158953994512558, 0.1825537085533142, -0.017689120024442673, -0.06051076576113701, 0.19759058952331543, -0.45736411213874817, 0.5194033980369568, -0.24936161935329437, -0.0840485692024231, -0.022816024720668793, 0.332400381565094, 0.2711074650287628, 0.007049623876810074, 0.13251230120658875, 0.3922644555568695, 0.16517320275306702, -0.017725173383951187, -0.21876466274261475, -0.05170641839504242, -0.39777421951293945, -0.21842050552368164, -0.004763444419950247, 0.12803106009960175, -0.1418311893939972, 0.26185908913612366, -0.12125340849161148, -0.00023574079386889935], [0.21469205617904663, 0.028553040698170662, -0.13033339381217957, -0.13879820704460144, 0.09778067469596863, -0.02472361922264099, -0.11922506242990494, -0.006708996836096048, -0.016648637130856514, 0.07291100919246674, -0.0011876573553308845, -0.3282296657562256, -0.2104107141494751, 0.1336721032857895, -0.13208942115306854, -0.3997199833393097, -0.05733099207282066, 0.06864961981773376, -0.16022861003875732, -0.02341390587389469, -0.14066770672798157, -0.08487006276845932, 0.03007478080689907, 0.3718152940273285, -0.298229843378067, -0.0554448738694191, -0.09182607382535934, -0.1955711841583252, 0.12725839018821716, -0.01131443865597248, -0.14791016280651093, -0.3089609146118164, -0.1827312558889389, -0.0642804205417633, 0.1929146647453308, -0.015277612954378128, 0.009942972101271152, 0.006018373649567366, -0.14822763204574585, -0.2855820059776306, -0.1395225077867508, -0.07882000505924225, -0.16743646562099457, 0.14670848846435547, -0.12712818384170532, -0.053551726043224335, -0.2712784707546234, -0.2331978976726532, -0.027011271566152573, -0.009203437715768814, 0.2027832567691803, -0.03207859769463539, 0.21077264845371246, -0.007769164629280567, -0.06376778334379196, -0.28425467014312744, 0.11026955395936966, -0.1491650938987732, 0.17892228066921234, 0.023319998756051064, 0.043774377554655075, 0.2610338032245636, -0.155593141913414, -0.02734389714896679, -0.08662374317646027, -0.1213650330901146, 0.1640663892030716, -0.011525219306349754, 0.2560451030731201, -0.22414684295654297, -0.11474331468343735, -0.14256547391414642], [-0.3760952651500702, -0.5998566150665283, 0.052822407335042953, -0.9185004830360413, -0.4338972270488739, 0.42946699261665344, -0.7052600979804993, 0.1433093398809433, -0.1349770724773407, -0.3814181089401245, -0.12907904386520386, 0.20839042961597443, -0.5427054762840271, -0.5490811467170715, -0.40082111954689026, -0.2754855155944824, -0.6709680557250977, -0.48025181889533997, -0.8710294961929321, -1.060528039932251, -0.7924560308456421, -0.6738710403442383, -0.5689072012901306, -1.1745069026947021, -0.6589570641517639, -0.6513640284538269, -0.10312759131193161, -0.029803937301039696, -0.7455093860626221, -0.6239932775497437, -0.4110869765281677, -0.0844385176897049, -0.19119876623153687, -0.36931008100509644, -0.6205626726150513, -0.22332775592803955, 0.2533465623855591, -0.11114658415317535, 0.057940706610679626, -0.1503768414258957, 0.03088160790503025, -0.504099428653717, 0.2236960530281067, -0.4225612282752991, -0.10618030279874802, -0.23504763841629028, -0.003525091102346778, 0.16488651931285858, -0.32918617129325867, -0.15097245573997498, -0.15655404329299927, 0.256523460149765, -0.4736599624156952, 0.6955505609512329, 0.15059882402420044, 0.18731056153774261, -0.12993168830871582, 0.3119242787361145, 0.24170304834842682, 0.2744216024875641, -0.010656384751200676, -0.10251966863870621, 0.14291507005691528, -0.3266121447086334, -0.22626616060733795, 0.0806780681014061, 0.033823948353528976, 0.1405055820941925, -0.13051912188529968, 0.43893125653266907, 0.09598705172538757, 0.2242123931646347], [-0.02403203397989273, -0.3761070966720581, 0.6424180269241333, 0.00788193754851818, 0.05005846545100212, 0.4325005114078522, -0.3707219660282135, 0.3924180269241333, -0.8438954949378967, 0.1517486274242401, -0.17278657853603363, 0.3378215730190277, 0.28004300594329834, 0.08154547214508057, -0.38298216462135315, -0.028163406997919083, 0.329140305519104, -0.7026097178459167, -0.3328873813152313, -0.11910940706729889, 0.5550437569618225, -0.4507308900356293, -0.712068498134613, -0.24641673266887665, 0.5233333706855774, -0.29914918541908264, -0.08524707704782486, -0.31142371892929077, -0.3432430624961853, -0.3954934775829315, 0.18678386509418488, -0.10975267738103867, -0.2651571035385132, 0.03195831924676895, 0.022493993863463402, -0.06602787226438522, 0.021885337308049202, 0.1299292892217636, 0.12045235186815262, -0.0019204727141186595, -0.06816621124744415, -0.026134127750992775, 0.07134190946817398, 0.2944470942020416, -0.5014115571975708, -0.09873294830322266, 0.19169041514396667, 0.3618701696395874, -0.5312433838844299, -0.0821785107254982, 0.27550607919692993, -0.16127827763557434, -0.36337754130363464, -0.1928310990333557, 0.14606313407421112, -0.1468256413936615, -0.1003173291683197, -0.4854847192764282, -0.16228987276554108, -0.18921969830989838, -0.14804770052433014, -0.4570429027080536, -0.09746352583169937, 0.33258453011512756, 0.3741535544395447, 0.10877946019172668, -0.21139001846313477, 0.24512316286563873, -0.02836928330361843, 0.339834988117218, 0.30505406856536865, 0.29765236377716064], [-0.1382932811975479, 0.20886147022247314, 0.23291370272636414, 0.005915792193263769, 0.17154856026172638, 0.3318595290184021, 0.13613027334213257, 0.1488926261663437, -0.01581227220594883, 0.2532522678375244, 0.08295491337776184, -0.17937050759792328, -0.11708388477563858, -0.10909586399793625, -0.08578681200742722, 0.013289548456668854, 0.1139795109629631, 0.05547860264778137, 0.233195960521698, 0.19197390973567963, 0.21749423444271088, -0.025738030672073364, 0.2827751338481903, 0.05599687620997429, 0.07382497936487198, 0.2116306871175766, -0.058052364736795425, 0.31528130173683167, 0.20109741389751434, -0.02998298406600952, 0.14589174091815948, 0.1475769430398941, 0.1875641942024231, 0.019012451171875, 0.22277696430683136, 0.2800493836402893, 0.15582439303398132, 0.1085917130112648, 0.11195314675569534, 0.42709723114967346, 0.3104674220085144, 0.39795905351638794, 0.17091499269008636, 0.018007243052124977, 0.07876456528902054, -0.06864456087350845, -0.026417147368192673, 0.012426263652741909, 0.03082486242055893, -0.15294010937213898, -0.28176572918891907, 0.1336035132408142, -0.0012820262927561998, -0.133450448513031, -0.18785043060779572, 0.29608413577079773, -0.027674667537212372, -0.06903456896543503, 0.15020710229873657, 0.1363275647163391, 0.15391474962234497, -0.048682376742362976, -0.06769443303346634, -0.18378044664859772, 0.4148182272911072, 0.056781768798828125, -0.1168636903166771, 0.07249101251363754, -0.2618555426597595, 0.19527029991149902, -0.1342388093471527, -0.051110222935676575], [-0.019018713384866714, 0.4253541827201843, -0.06444288045167923, 0.029943469911813736, -0.280990332365036, -0.1958550363779068, 0.40089869499206543, -0.39026206731796265, -0.0422179214656353, 0.48837390542030334, 0.10675884783267975, -0.08976782858371735, 0.5061671733856201, 0.859133243560791, 0.22810307145118713, -0.13264542818069458, -0.5379631519317627, 0.1995995044708252, -0.2766113579273224, 0.4645296633243561, 0.16517269611358643, -0.06889110803604126, -0.1880297213792801, 0.6938412189483643, 0.274158239364624, 0.004625267349183559, 0.154515340924263, 0.1787768304347992, 0.08348068594932556, -0.3377065360546112, -0.2345900535583496, 0.20100213587284088, -0.24967063963413239, -0.23250515758991241, -0.2496354877948761, -0.14809463918209076, -0.3605429232120514, -0.6212245225906372, -0.32825276255607605, 0.04294603317975998, -0.03800450637936592, 0.1764424443244934, 0.2519899606704712, 0.024046553298830986, -0.2930409908294678, -0.3322496712207794, -0.21210068464279175, -0.06961959600448608, 0.13524843752384186, 0.10289870947599411, -0.027234483510255814, -0.15712638199329376, -0.1245776116847992, -0.0855000764131546, -0.08666025102138519, -0.09332257509231567, 0.34452441334724426, -0.12874025106430054, 0.3369236886501312, -0.10412082821130753, 0.20308712124824524, 0.2966146469116211, -0.11625475436449051, -0.16047072410583496, 0.08595409989356995, 0.20451688766479492, -0.3564143776893616, -0.37365737557411194, 0.24600383639335632, -0.1138334795832634, -0.027215341106057167, -0.3883713185787201], [-0.059543710201978683, -0.03701982647180557, -0.234893798828125, -0.26872962713241577, -0.23845501244068146, 0.3206639885902405, -0.12609265744686127, 0.1807294338941574, 0.6120319366455078, 0.028878003358840942, -0.17272867262363434, -0.0796043649315834, -0.4315566122531891, -0.7700954079627991, 0.35450494289398193, 0.1942945420742035, -0.2536366283893585, 0.015219387598335743, -0.07140658795833588, -0.7144818305969238, -0.6958308815956116, 0.3795395493507385, 0.2506568431854248, -0.4767155945301056, -0.3500540554523468, 0.26878830790519714, 0.2926991283893585, 0.3114607036113739, 0.1090693548321724, -0.11200931668281555, 0.07103028893470764, 0.09076624363660812, 0.3962577283382416, -0.14823800325393677, 0.0015620961785316467, 0.1657026708126068, 0.5706031918525696, 0.1563529074192047, -0.26869913935661316, 0.12767799198627472, 0.23649545013904572, -0.01200992614030838, 0.2232864797115326, -0.053975168615579605, 0.36233603954315186, 0.183445006608963, -0.06918524950742722, -0.09401579201221466, 0.030648063868284225, -0.2050141841173172, -0.3228248357772827, 0.3406696319580078, -0.31413450837135315, 0.20205102860927582, -0.16168101131916046, 0.0047781867906451225, -0.23636949062347412, 0.10474307835102081, -0.0015983859775587916, 0.34099137783050537, 0.4408264458179474, -0.234538272023201, 0.2189793884754181, -0.4133670926094055, -0.35742679238319397, -0.36749503016471863, 0.1878037303686142, 0.04598734527826309, -0.08918024599552155, 0.17031608521938324, 0.044553063809871674, -0.20153239369392395], [0.093796506524086, -0.1273653358221054, 0.054752103984355927, -0.35810887813568115, -0.7190240025520325, -0.011999783106148243, -0.019284170120954514, 0.09606730937957764, -0.5897348523139954, 0.7681774497032166, 0.19082053005695343, -0.41649606823921204, -0.3025732636451721, -0.1896461844444275, -0.039700549095869064, -0.31030961871147156, -0.32374516129493713, 0.10653679072856903, -0.5040733218193054, -0.16694271564483643, 0.06740384548902512, -0.4538057744503021, -0.7846345901489258, -0.15815278887748718, 0.3111952543258667, -0.2876690626144409, 0.11443819850683212, -0.03209464251995087, -0.0779150202870369, -0.4236171245574951, -0.23223799467086792, 0.008431695401668549, 0.2407655119895935, -0.09573512524366379, -0.20001085102558136, 0.12256277352571487, -0.03547405079007149, 0.21962401270866394, -0.14070925116539001, 0.13481687009334564, -0.2293350249528885, -0.06812333315610886, -0.34923139214515686, 0.4172791540622711, -0.23777012526988983, 0.0974048376083374, -0.5689088702201843, 0.15068064630031586, 0.1122027114033699, -0.16786037385463715, 0.44426852464675903, 0.004061264917254448, -0.14638406038284302, 0.01346678752452135, 0.25028669834136963, -0.6374778747558594, -0.010795198380947113, 0.009308346547186375, 0.3300899863243103, 0.027361886575818062, 0.009620743803679943, 0.09563378244638443, -0.023127872496843338, 0.025202587246894836, 0.1250801533460617, -0.0004741863231174648, -0.06533773243427277, 0.062036026269197464, 0.15497708320617676, 0.09467261284589767, 0.22180263698101044, 0.16550037264823914], [-0.034964315593242645, -0.05683315172791481, 0.06340727210044861, 0.20808273553848267, -0.2049337476491928, -0.25919294357299805, 0.06646237522363663, 0.14748285710811615, 0.4604036211967468, -0.4129570424556732, 0.13864457607269287, 0.36660823225975037, -0.31948086619377136, 0.18422654271125793, -0.2362334281206131, -0.4962964653968811, 0.14722047746181488, 0.181995689868927, -0.20587708055973053, 0.38380882143974304, 0.2910764217376709, 0.00413762079551816, -0.01358531042933464, 0.11399146914482117, 0.44604310393333435, -0.3986033797264099, 0.15769267082214355, -0.06873975694179535, -0.22818607091903687, -0.2874409556388855, -0.08523951470851898, 0.28910890221595764, -0.5700581669807434, 0.45569300651550293, -0.19862684607505798, 0.22501234710216522, 0.2519165873527527, 0.09840146452188492, -0.08546052873134613, 0.12163747847080231, 0.039434149861335754, -0.09119033068418503, 0.619498610496521, 0.1924605369567871, -0.024783656001091003, -0.051842059940099716, 0.10408449172973633, 0.08290106058120728, -0.039792731404304504, 0.0824204534292221, -0.2741674780845642, -0.08851704001426697, -0.11262667924165726, 0.19311098754405975, 0.13024482131004333, 0.10596291720867157, 0.35346847772598267, -0.14801937341690063, 0.29320961236953735, 0.24402351677417755, 0.03473462909460068, 0.0735880509018898, -0.23462575674057007, -0.34087592363357544, -0.16220231354236603, 0.01938304491341114, 0.043088316917419434, -0.1501455456018448, 0.03649192675948143, 0.12026465684175491, -0.006658886559307575, -0.16328905522823334], [0.1983761489391327, 0.22902241349220276, -0.45812931656837463, -0.41290298104286194, -0.05395951867103577, -0.04119488596916199, 0.023718059062957764, -0.4158325493335724, 0.27952831983566284, 0.06948131322860718, 0.20713332295417786, -0.46198388934135437, 0.12972168624401093, -0.335543155670166, -0.0055729360319674015, -0.12320692837238312, -0.46188971400260925, 0.38252565264701843, -0.27627092599868774, -0.339149534702301, -0.37732401490211487, -0.007872460409998894, -0.12304577231407166, -0.28766271471977234, 0.23901036381721497, 0.21918979287147522, 0.4316592514514923, 0.016101254150271416, 0.03773742914199829, -0.0652899444103241, -0.2585742175579071, 0.027907585725188255, 0.09169922769069672, 0.00805719569325447, -0.2520993947982788, -0.07576000690460205, -0.08796268701553345, 0.020977413281798363, -0.26112842559814453, -0.17670437693595886, -0.1911367028951645, -0.2621043622493744, 0.08854006975889206, 0.14575710892677307, -0.09056007862091064, 0.11588681489229202, -0.35980749130249023, -0.19265636801719666, -0.02568191848695278, -0.20480401813983917, -0.0970064178109169, 0.15114109218120575, 0.033501021564006805, 0.17425945401191711, 0.027175672352313995, -0.11748899519443512, 0.07315413653850555, 0.11643612384796143, 0.4190537631511688, 0.020951615646481514, 0.0217881016433239, 0.18960337340831757, 0.19625574350357056, -0.12434867024421692, -0.21666406095027924, -0.08000388741493225, 0.22288501262664795, 0.2349686324596405, -0.16584396362304688, 0.1143542230129242, -0.2653314471244812, -0.21735866367816925], [0.05646897852420807, 0.03438205644488335, -0.12338460236787796, -0.10532151907682419, -0.2337551862001419, -0.3200356364250183, -0.24359996616840363, 0.10089258849620819, -0.12873457372188568, -0.16348512470722198, -0.05340856313705444, 0.046582940965890884, 0.1862838864326477, 0.027926253154873848, -0.35165196657180786, -0.04779834672808647, 0.09553676843643188, 0.058641284704208374, -0.2521214187145233, -0.023590367287397385, -0.01934433914721012, -0.2359093576669693, -0.0942644253373146, -0.24157340824604034, -0.21674583852291107, -0.07533440738916397, -0.05877131223678589, -0.2559978663921356, 0.025436989963054657, 0.0015186367090791464, -0.053287141025066376, -0.13685712218284607, 0.06447981297969818, -0.05384126305580139, -0.053374387323856354, -0.43920889496803284, -0.1001698225736618, 0.030950097367167473, -0.13555216789245605, -0.26841628551483154, -0.38055500388145447, -0.15678934752941132, -0.1528649628162384, -0.2921087145805359, 0.052814874798059464, -0.0039981091395020485, -0.12564758956432343, 0.13011446595191956, 0.0406513586640358, -0.0474461205303669, 0.13030706346035004, 0.25630611181259155, 0.11851014196872711, 0.12315378338098526, -0.04106537625193596, -0.10159993916749954, 0.14774008095264435, 0.12724295258522034, 0.10848767310380936, -0.13598479330539703, -0.05356515571475029, -0.08839955180883408, -0.006191309541463852, -0.19159628450870514, -0.17478039860725403, 0.04549011215567589, -0.17127466201782227, -0.08981557935476303, 0.08962941914796829, -0.08889980614185333, 0.1558111310005188, -0.12555678188800812], [0.17565444111824036, -0.21604542434215546, 0.06726604700088501, -0.12999922037124634, 0.5759408473968506, 0.24249647557735443, -0.033707208931446075, 0.315282940864563, -0.4437325894832611, 0.6323137283325195, -0.0944894403219223, -0.13029049336910248, -0.5497252941131592, -0.43190696835517883, 0.3633752167224884, 0.46030014753341675, -0.20666290819644928, -0.1871432662010193, 0.27159547805786133, -1.1256210803985596, -1.105610966682434, -0.10393671691417694, 0.134201318025589, -0.7492660284042358, -0.5433233976364136, 0.03321206569671631, 0.0019667421001940966, -0.11369065940380096, 0.05803079903125763, 0.10005348175764084, 0.12243776768445969, -0.20764578878879547, 0.35136789083480835, -0.6540390849113464, -0.08215063810348511, 0.10439641028642654, 0.10989024490118027, 0.17375990748405457, -0.046969328075647354, -0.03516586869955063, -0.09674206376075745, -0.24526728689670563, -0.14090345799922943, -0.41860562562942505, 0.2086745649576187, 0.09956095367670059, 0.12067294865846634, -0.3272024095058441, 0.09907062351703644, -0.3652573525905609, -0.010888876393437386, 0.17585358023643494, 0.21939308941364288, -0.01831258460879326, -0.14894579350948334, -0.0700153335928917, -0.5066775679588318, 0.2816881239414215, -0.2009464055299759, -0.6569392085075378, -0.050345759838819504, 0.019280992448329926, 0.4877675175666809, -0.012027766555547714, -0.1452702432870865, -0.5199441313743591, 0.08141165971755981, -0.04362079128623009, -0.29654785990715027, 0.2255641520023346, -0.01680987887084484, 0.015306026674807072], [0.5840467810630798, 0.21856103837490082, 0.31302610039711, 0.27097031474113464, 0.45764854550361633, -0.027029678225517273, -0.17012588679790497, -0.009708398953080177, -0.3223048746585846, -0.22646601498126984, -0.11134219169616699, 0.11355205625295639, 0.07287324219942093, 0.3623696565628052, -0.055061593651771545, 0.04299553483724594, 0.11431161314249039, -0.29656317830085754, 0.4279809296131134, 0.2946482002735138, 0.16361889243125916, 0.04213110730051994, 0.05869215726852417, 0.12223945558071136, -0.22638650238513947, -0.19006118178367615, -0.24845588207244873, -0.1284448355436325, 0.18845252692699432, 0.9074774384498596, 0.20067904889583588, -0.56633460521698, -0.17607492208480835, 0.029275910928845406, 0.2395205795764923, -0.14241723716259003, -0.05935775861144066, 0.00536637706682086, -0.16048820316791534, -0.04623375087976456, 0.16567941009998322, 0.3106091618537903, -0.16451746225357056, -0.12170077115297318, 0.18283295631408691, 0.21596470475196838, 0.23392212390899658, 0.16459377110004425, -0.14230330288410187, 0.1411280333995819, 0.4108036756515503, -0.005017714574933052, 0.4962402582168579, -0.26284751296043396, -0.16432923078536987, -0.260591596364975, -0.44901806116104126, -0.40630871057510376, -0.3726242482662201, -0.21060289442539215, -0.20158438384532928, -0.031035492196679115, 0.07542180269956589, 0.29061460494995117, 0.1401498168706894, -0.09322036802768707, -0.14542630314826965, 0.07821987569332123, 0.013910212554037571, -0.1207682192325592, 0.13549962639808655, 0.3006742298603058], [0.008042238652706146, 0.0737270712852478, 0.1014028787612915, -0.05274885520339012, 0.16431422531604767, 0.18999789655208588, 0.33879709243774414, 0.14387542009353638, -0.8763788938522339, 0.6783934831619263, -0.12364765256643295, -0.2003716677427292, 0.35963740944862366, 0.2115221470594406, -0.06002430245280266, 0.11205460876226425, 0.0038901977241039276, -0.04428800567984581, -0.09798481315374374, 0.5161235928535461, 0.15761291980743408, -0.34440475702285767, -0.31456607580184937, 0.5069446563720703, 0.031043285503983498, 0.28176337480545044, 0.0580439455807209, 0.043487876653671265, -0.006082034669816494, -0.34843334555625916, -0.08233902603387833, 0.10336137562990189, 0.32675161957740784, -0.328278511762619, 0.11989065259695053, 0.21956457197666168, 0.0006078050355426967, 0.027430595830082893, 0.08163907378911972, 0.02191108837723732, 0.4397071897983551, -0.2957562208175659, 0.03843192383646965, 0.17613524198532104, -0.3802318572998047, -0.0637161061167717, 0.1571320742368698, -0.11701498180627823, 0.02702775038778782, -0.419717401266098, 0.2938443720340729, -0.3983926773071289, -0.05221686139702797, 0.3334379196166992, -0.14451009035110474, -0.07819635421037674, 0.05174477398395538, 0.15270806849002838, -0.06953039765357971, -0.11599582433700562, 0.18416382372379303, -0.06430964916944504, 0.26191237568855286, -0.2129645198583603, 0.3023207485675812, 0.2560071647167206, -0.030671818181872368, -0.09396380931138992, 0.353619247674942, -0.07043277472257614, 0.2874886691570282, 0.2375582605600357], [0.2746708393096924, 0.1130698025226593, -0.22257933020591736, -0.3251079022884369, -0.09912262856960297, -0.42688435316085815, -0.20161162316799164, -0.14076997339725494, -0.3824804127216339, 0.1391093134880066, -0.17231157422065735, 0.4269649088382721, 0.26687121391296387, 0.022178268060088158, -0.22747135162353516, -0.05233919993042946, -0.26206231117248535, -0.21387316286563873, -0.12263720482587814, -0.10085562616586685, -0.13813497126102448, -0.0994459018111229, -0.1266552358865738, 0.15655604004859924, 0.010585307143628597, -0.25214269757270813, 0.09754443168640137, -0.09445823729038239, -0.33115988969802856, -0.3029790222644806, 0.031129121780395508, -0.39202505350112915, 0.05806815251708031, 0.2636633813381195, 0.15617996454238892, -0.2642466425895691, -0.1601225584745407, -0.1082972064614296, 0.026509307324886322, -0.29307958483695984, -0.0412844680249691, -0.1010308787226677, -0.011738410219550133, 0.07076790183782578, 0.12213578820228577, -0.24911437928676605, -0.018743464723229408, 0.27813252806663513, -0.08703494817018509, -0.06461161375045776, 0.2844124138355255, -0.12622663378715515, 0.026360252872109413, 0.10611215978860855, 0.26407015323638916, -0.22871600091457367, 0.09426739811897278, 0.055064424872398376, 0.21643030643463135, -0.29021650552749634, 0.044348422437906265, 0.27672824263572693, -0.06186724454164505, 0.11376184225082397, 0.07316168397665024, 0.01729855313897133, -0.27972128987312317, 0.09758914262056351, 0.22291980683803558, -0.054199572652578354, -0.016199717298150063, 0.022535765543580055], [-0.24696014821529388, 0.04693014547228813, 0.05410325154662132, 0.30712637305259705, -0.15908373892307281, -0.07008733600378036, 0.36090317368507385, 0.11324657499790192, 0.4500561058521271, 0.3339218199253082, -0.027718788012862206, -0.25992050766944885, -0.04617868736386299, -0.6153056025505066, 0.26902836561203003, -0.23328430950641632, 0.3106745183467865, 0.6140707731246948, 0.46309715509414673, 0.13268345594406128, 0.26138025522232056, 0.048726294189691544, 0.4196966588497162, -0.32504281401634216, 0.4277615249156952, 0.052251894026994705, 0.10096511989831924, 0.10688094049692154, -0.01635623723268509, 0.44694361090660095, -0.0974685475230217, -0.08987798541784286, 0.47738945484161377, 0.12056481838226318, 0.04069237783551216, 0.12855727970600128, 0.1032901257276535, 0.33009034395217896, -0.053216081112623215, 0.0886538103222847, 0.031929925084114075, -0.3576369285583496, -0.11038794368505478, 0.15288203954696655, 0.10590158402919769, -0.22366036474704742, 0.14554229378700256, -0.04013325646519661, 0.11402188241481781, 0.09353480488061905, -0.19880276918411255, 0.3151725232601166, 0.18914327025413513, -0.1146896705031395, -0.15258798003196716, 0.018866632133722305, 0.20777155458927155, 0.07989606261253357, 0.20106224715709686, 0.020529180765151978, 0.08162803947925568, 0.09424348920583725, -0.09008044004440308, 0.08374463021755219, -0.1708608716726303, -0.40654298663139343, 0.15367816388607025, 0.0001983878610190004, 0.09503500908613205, -0.020454248413443565, -0.20155967772006989, -0.1583055555820465], [-0.01109879557043314, -0.4999755918979645, 0.3069574534893036, 0.25693076848983765, -0.20651093125343323, -0.1568204164505005, -0.5887726545333862, 0.02563629113137722, -0.1888771802186966, -0.6464800834655762, -0.10407405346632004, 0.5939927697181702, -0.19466368854045868, -0.1827620565891266, -0.6962056756019592, -0.6560322642326355, 0.6425812244415283, -0.667019784450531, -0.37759774923324585, -0.08684952557086945, 0.30286556482315063, -0.39480987191200256, -0.6084269285202026, -0.12332785874605179, -0.12211184948682785, -0.1291024535894394, -0.2157433032989502, -0.3932937979698181, -0.17319267988204956, -0.1703696846961975, -0.29947519302368164, -0.31662243604660034, -0.4445248246192932, 0.39273449778556824, -0.091391921043396, -0.13705910742282867, -0.039253756403923035, 0.05990709364414215, 0.2264426350593567, -0.38796696066856384, -0.630770742893219, -0.08914826810359955, 0.005497908219695091, 0.20428712666034698, 0.007655046414583921, 0.1697538197040558, 0.4673134982585907, 0.402793288230896, -0.2442977875471115, 0.21920789778232574, -0.031685058027505875, -0.11382991075515747, -0.01815686747431755, -0.4239670932292938, 0.21307271718978882, -0.30293864011764526, 0.03194119408726692, -0.12207402288913727, -0.4005890488624573, 0.006833039689809084, -0.3519629240036011, 0.1541794389486313, -0.18999162316322327, 0.26364246010780334, 0.2505530118942261, 0.08048563450574875, -0.11150195449590683, 0.3803660571575165, 0.18999703228473663, 0.048904694616794586, 0.30105674266815186, 0.38781973719596863], [-0.00901841465383768, -0.09115125983953476, 0.13749508559703827, -0.033773329108953476, -0.46786758303642273, -0.21810515224933624, -0.02360781654715538, -0.1704254299402237, -0.6690717935562134, 0.3718729019165039, 0.028114676475524902, 0.12474895268678665, 0.0032884760294109583, 0.47464966773986816, 0.030977442860603333, 0.11317826807498932, 0.2964004874229431, -0.41188281774520874, -0.6408154368400574, 0.49199816584587097, -0.13761858642101288, -0.4651638865470886, -0.8227835893630981, 0.32959553599357605, 0.2647593021392822, -0.2605970799922943, -0.2963602542877197, -0.06486287713050842, 0.24533651769161224, -0.6907628178596497, -0.143203467130661, 0.043702561408281326, 0.10931377857923508, 0.15693463385105133, -0.48124438524246216, 0.15866291522979736, 0.0018432254437357187, 0.05473685264587402, -0.10612225532531738, 0.3271665871143341, 0.09391654282808304, -0.6032276749610901, -0.15415124595165253, 0.37857112288475037, -0.30818912386894226, -0.13892999291419983, -0.05076698213815689, 0.3353618383407593, -0.045033905655145645, -0.050976548343896866, 0.01386288832873106, -0.03964557126164436, 0.17211614549160004, 0.18154659867286682, 0.11428049206733704, -0.09018474817276001, -0.10135691612958908, 0.014700822532176971, -0.015447129495441914, 0.13639606535434723, 0.06661968678236008, 0.21209587156772614, -0.03133011236786842, -0.0264901053160429, 0.1442573368549347, 0.2989572584629059, -0.09328724443912506, 0.10724306851625443, 0.38987237215042114, -0.21107003092765808, 0.3095463514328003, -0.13099345564842224], [-0.5126388669013977, -0.2930973768234253, 0.36370280385017395, -0.14699429273605347, 0.11879073828458786, 0.24974915385246277, -0.5841804146766663, 0.20609763264656067, 0.3604278564453125, -0.7537859678268433, -0.16498498618602753, 0.08293616771697998, -0.7414171695709229, -0.7243741750717163, -0.29507461190223694, -0.3692174255847931, -0.08370344340801239, -0.4800778031349182, -0.2781107425689697, -1.027830958366394, -0.44293954968452454, -0.8473866581916809, -0.2931765913963318, -1.1937012672424316, -0.3287792503833771, -0.2812344431877136, -0.36873453855514526, -0.24791105091571808, -0.39780759811401367, -0.42623212933540344, -0.015622012317180634, -0.24054552614688873, 0.030943363904953003, 0.052484288811683655, -0.14121724665164948, -0.09529876708984375, 0.39618489146232605, 0.1286540925502777, 0.37198105454444885, 0.09234575182199478, -0.23696835339069366, 0.23052579164505005, 0.12230345606803894, -0.007555451709777117, 0.3698986768722534, 0.3350972831249237, 0.4259542226791382, 0.525124192237854, -0.4058067500591278, 0.21956411004066467, 0.12326309084892273, 0.062096185982227325, -0.44527021050453186, 0.33617138862609863, 0.16484026610851288, 0.025675715878605843, -0.11677439510822296, -0.23795734345912933, -0.29965314269065857, -0.07644666731357574, -0.2300635725259781, -0.09744077920913696, 0.3118416666984558, 0.37302523851394653, -0.10835325717926025, -0.07810018956661224, -0.16151678562164307, 0.3131965696811676, -0.4097624123096466, 0.8145812749862671, 0.10362095385789871, 0.266004353761673], [0.004355926066637039, -0.04810332879424095, 0.17189916968345642, -0.23271282017230988, 0.11476970463991165, -0.07623402029275894, -0.0015684266109019518, -0.0361398421227932, -0.4021356403827667, -0.1673990935087204, -0.15470366179943085, 0.3780278265476227, 0.18973632156848907, -0.11212046444416046, -0.13973043859004974, 0.12283074110746384, -0.042292945086956024, -0.28966107964515686, -0.13548614084720612, 0.0838586613535881, -0.057859379798173904, -0.1772429645061493, -0.13795870542526245, -0.10456523299217224, -0.05781197175383568, -0.15031734108924866, -0.24100610613822937, -0.464951753616333, -0.19446547329425812, 0.032833147794008255, -0.24886976182460785, -0.23324944078922272, 0.0042351363226771355, 0.1900450736284256, -0.07766310125589371, -0.11686991900205612, 0.14547111093997955, -0.051850516349077225, 0.13114185631275177, -0.19149869680404663, 0.08609194308519363, 0.04710404947400093, -0.062450554221868515, 0.34954479336738586, -0.2745666801929474, 0.21205651760101318, 0.2791796326637268, 0.7157174944877625, 0.016125502064824104, -0.21130476891994476, 0.17341038584709167, -0.05783340707421303, 0.1175779476761818, -0.04184837266802788, 0.31691357493400574, -0.32201191782951355, -0.3312983512878418, -0.12758775055408478, 0.0691654235124588, -0.038509003818035126, -0.32560479640960693, -0.058755725622177124, -0.14433225989341736, 0.05344109982252121, 0.16854940354824066, 0.4458083510398865, -0.33502453565597534, 0.19546374678611755, 0.3708995282649994, 0.15430498123168945, 0.43610742688179016, 0.09188709408044815], [-0.4123768210411072, -0.26805657148361206, 0.2813584506511688, 0.09310919791460037, -0.02980676293373108, 0.07696093618869781, -0.6030117273330688, 0.797234296798706, 0.054308027029037476, -0.6875782608985901, -0.1716466248035431, -0.0013421833282336593, -0.5423744916915894, -0.19671110808849335, -0.3177359402179718, -0.18209438025951385, 0.21779432892799377, -0.8766639232635498, -0.16853371262550354, -0.7049983739852905, -0.03994497284293175, -0.5885486602783203, -0.388886034488678, -0.2349417507648468, -0.17281408607959747, 0.21956826746463776, 0.03159595653414726, 0.23730894923210144, -0.22014383971691132, -0.06705155223608017, 0.6821780800819397, -0.03884836658835411, -0.44869285821914673, -0.1624312549829483, 0.043807968497276306, 0.4273582398891449, 0.6826710104942322, -0.1842961460351944, 0.3608643114566803, 0.3238033950328827, 0.05214996263384819, 0.5514300465583801, 0.18825066089630127, 0.035087961703538895, 0.15350225567817688, 0.3588690757751465, 0.4595010578632355, -0.09113680571317673, -0.41562479734420776, 0.09715491533279419, -0.0437806062400341, 0.13285572826862335, -0.10892312228679657, 0.2604946196079254, 0.11316084861755371, 0.29138150811195374, -0.053691525012254715, 0.08257615566253662, -0.03140765801072121, 0.31503352522850037, -0.030340414494276047, -0.07550673931837082, -0.12855041027069092, -0.183578222990036, 0.0072630904614925385, -0.1413886547088623, 0.011311003938317299, 0.1657702475786209, 0.04599817842245102, 0.06498999893665314, 0.303243488073349, 0.21475903689861298]], "gru_bias": [[0.013850253075361252, 0.10034086555242538, 0.10424849390983582, 0.08891183882951736, 0.031239744275808334, 0.161787211894989, 0.1646265685558319, 0.1456231027841568, 0.08178598433732986, 0.11004994809627533, 0.06710159778594971, -0.05109697952866554, 0.12507012486457825, 0.17780740559101105, 0.0235842727124691, 0.09978857636451721, 0.061170853674411774, 0.1941472589969635, 0.20280805230140686, 0.06385527551174164, 0.09088388830423355, 0.05160517990589142, 0.15862584114074707, 0.20699645578861237, 0.08951657265424728, -0.0009269446600228548, 0.05072581395506859, 0.3005334138870239, 0.09655261039733887, 0.01118388306349516, 0.05216854810714722, 0.23111435770988464, 0.05048979073762894, 0.029117770493030548, 0.09176891297101974, 0.18546134233474731, 0.11627785861492157, 0.04112311825156212, 0.014649767428636551, 0.36299455165863037, 0.3106740117073059, 0.04755625128746033, 0.04144459217786789, 0.005105277057737112, -0.012644532136619091, 0.09487158060073853, 0.0006473435205407441, -0.01369780395179987, -0.030966365709900856, -0.07070421427488327, 0.022697117179632187, -0.02320260927081108, -0.016258491203188896, 0.03214114531874657, 0.020265428349375725, 0.054474279284477234, -0.002918746555224061, -0.009970361366868019, 0.04193694889545441, 0.06584275513887405, 0.02373434789478779, -0.0667152926325798, 0.07882265746593475, -0.038928378373384476, 0.010975753888487816, -0.03923286125063896, -0.02056526020169258, 0.009531298652291298, 0.004833136685192585, 0.05803664028644562, 0.025378329679369926, 0.04712272435426712], [0.013850253075361252, 0.10034086555242538, 0.10424849390983582, 0.08891183882951736, 0.031239744275808334, 0.161787211894989, 0.1646265685558319, 0.1456231027841568, 0.08178598433732986, 0.11004994809627533, 0.06710159778594971, -0.05109697952866554, 0.12507012486457825, 0.17780740559101105, 0.0235842727124691, 0.09978857636451721, 0.061170853674411774, 0.1941472589969635, 0.20280805230140686, 0.06385527551174164, 0.09088388830423355, 0.05160517990589142, 0.15862584114074707, 0.20699645578861237, 0.08951657265424728, -0.0009269446600228548, 0.05072581395506859, 0.3005334138870239, 0.09655261039733887, 0.01118388306349516, 0.05216854810714722, 0.23111435770988464, 0.05048979073762894, 0.029117770493030548, 0.09176891297101974, 0.18546134233474731, 0.11627785861492157, 0.04112311825156212, 0.014649767428636551, 0.36299455165863037, 0.3106740117073059, 0.04755625128746033, 0.04144459217786789, 0.005105277057737112, -0.012644532136619091, 0.09487158060073853, 0.0006473435205407441, -0.01369780395179987, -0.04494861140847206, -0.06613168120384216, 0.004031605552881956, -0.011138129979372025, -0.020703518763184547, 0.0220212209969759, 0.0027873970102518797, 0.11204309016466141, -0.020886020734906197, -0.06374242156744003, 0.03018111176788807, 0.06693358719348907, 0.019002458080649376, -0.07730691879987717, 0.056770820170640945, -0.03610912710428238, 0.011549071408808231, -0.03234266862273216, -0.017296934500336647, 0.02178800106048584, -0.11784885823726654, 0.08007467538118362, 0.025105183944106102, 0.07147590070962906]], "dense_kernel": [[-0.09547098726034164, -0.5975959897041321, -0.050656795501708984, -0.2509479820728302, -0.5721147060394287, -0.24368703365325928, -0.14328329265117645, -0.009138320572674274], [0.9444830417633057, 0.6938603520393372, -0.025375517085194588, 0.00844172015786171, -0.4785946011543274, 0.7744284272193909, 0.6682242155075073, -0.8453729152679443], [-0.39828354120254517, -0.22206443548202515, 0.08696333318948746, -0.5717377066612244, -0.14551250636577606, -0.4982932209968567, -0.07307583838701248, -0.365444540977478], [0.411880761384964, 0.4003027081489563, 0.21188586950302124, 0.44684460759162903, -0.21564306318759918, -0.08858286589384079, 0.35632309317588806, 0.06934789568185806], [-0.15440669655799866, 0.0012417243560776114, 0.37422141432762146, -0.7117173671722412, -0.14117304980754852, -0.37300291657447815, 0.18026767671108246, -0.24920865893363953], [-0.5860128998756409, -0.35077154636383057, 0.041777223348617554, -0.012319148518145084, -0.408965528011322, -0.5548816919326782, 0.07797165960073471, 0.025400076061487198], [-0.4474591612815857, 0.4559754729270935, -0.32239454984664917, -0.18885517120361328, 0.533531904220581, 0.600149929523468, -0.09815575927495956, -0.08996661007404327], [-0.19448153674602509, 0.30916887521743774, -0.47143954038619995, 0.4875744581222534, 0.33022648096084595, 0.2823438346385956, 0.08209313452243805, 0.03886815533041954], [0.004330330528318882, 0.5742303729057312, -0.20405706763267517, -0.14459028840065002, -0.541481077671051, 0.9118887186050415, 0.9415647983551025, 0.3094486594200134], [-0.19425667822360992, -0.6995091438293457, 0.390592098236084, 0.2394106090068817, -0.22944894433021545, -0.9916620254516602, -0.19704903662204742, 0.7537946701049805], [0.0263411495834589, -0.39199790358543396, 0.05313082039356232, -0.3826541304588318, -0.5954877138137817, 0.14323686063289642, 0.15253965556621552, 0.6014817953109741], [0.21259929239749908, 0.5378553867340088, -0.35868915915489197, 0.4913863241672516, -0.04737037420272827, 1.0300706624984741, 0.1100476086139679, 0.4990027844905853], [-0.4740358293056488, -0.17202302813529968, -0.01779749244451523, 0.09205567836761475, -0.6925012469291687, -0.5306872129440308, 0.17730651795864105, 0.7701564431190491], [-0.21025125682353973, 0.051920343190431595, 0.2511219084262848, -0.5687384605407715, -0.4925290644168854, -0.48139816522598267, 0.1252594143152237, -0.12498769909143448], [-0.3728577196598053, -0.1945858895778656, -0.09833475947380066, -0.06912337988615036, 0.5443500876426697, -1.2794756889343262, -0.10170227289199829, 0.3165600001811981], [0.05765590816736221, 0.19716322422027588, -0.30472132563591003, -0.22075220942497253, 0.48646777868270874, 0.054812002927064896, 0.2579874098300934, -0.593281626701355], [-0.209197536110878, -0.160490944981575, 0.10867348313331604, -0.49211665987968445, 0.419040709733963, -0.37368783354759216, -0.5490844249725342, 0.24331220984458923], [-0.11782718449831009, -0.11049257218837738, -0.01399330422282219, -0.7685718536376953, -0.28638386726379395, -0.08824184536933899, 0.16267456114292145, -0.09578845649957657], [0.6020095348358154, -0.1681280881166458, -0.27229076623916626, 0.7216610908508301, 0.003400002606213093, 0.13141052424907684, 0.3914465606212616, 0.3997514843940735], [-0.0845196545124054, 0.6850754022598267, 0.05394594371318817, -0.3795321583747864, 0.4166616201400757, 0.22412779927253723, -0.18356388807296753, -0.11344846338033676], [-0.5182375311851501, 0.028360731899738312, 0.11239350587129593, -0.7906613349914551, 0.1335224211215973, -0.12970581650733948, -0.038339994847774506, 0.2780706286430359], [0.485990971326828, -0.0846736952662468, -0.1537744700908661, 0.23585043847560883, 0.4249793291091919, -0.3435424566268921, 0.2983449101448059, 0.2067217379808426], [-0.5855560302734375, -0.19985592365264893, 0.4693938195705414, -0.5173227190971375, 0.20998527109622955, -0.31587228178977966, -0.4825320839881897, -0.23085005581378937], [0.19933022558689117, 0.20166943967342377, -0.17458274960517883, -0.11837386339902878, 0.8397010564804077, 0.45111486315727234, -0.20583756268024445, 0.03069082275032997]], "dense_bias": [0.009236346930265427, 0.10169144719839096, -0.12274497002363205, 0.4201299548149109, 0.4019147753715515, 0.42127612233161926, 0.035328809171915054, 0.37634795904159546], "dense_1_kernel": [[-0.3740345537662506, 0.09351839870214462, -0.7498205900192261, -1.0350821018218994], [-1.1603444814682007, 0.43437936902046204, -0.5723979473114014, 0.43939992785453796], [0.42689406871795654, -0.5660367012023926, -0.5417532324790955, -0.2606637477874756], [-0.15239562094211578, 0.17092891037464142, 0.4379037022590637, -1.4512050151824951], [1.3070533275604248, -0.4174168109893799, -0.575102686882019, 0.37270817160606384], [-0.6562069654464722, 0.600688099861145, 0.3318895101547241, 0.7055901885032654], [-0.5699791312217712, 0.40069779753685, 0.6281832456588745, -1.1870112419128418], [-0.18427129089832306, -0.7406954765319824, 0.8730652332305908, -0.6662760972976685]], "dense_1_bias": [0.22593896090984344, -0.5406182408332825, 0.19488930702209473, 0.29228752851486206]}}